<?xml version="1.0"?>
<opencv_storage>
<stage1>
  <maxWeakCount>18</maxWeakCount>
  <stageThreshold>-1.9777278900146484e+00</stageThreshold>
  <weakClassifiers>
    <_>
      <internalNodes>
        0 -1 22 -816844813 -551829745 -875695113 -1574929 -25166657
        -1141903889 -324812865 -67116713</internalNodes>
      <leafValues>
        -8.5533815622329712e-01 -3.3080568909645081e-01</leafValues></_>
    <_>
      <internalNodes>
        0 -1 3779 989306111 -1342259201 -36307201 -1109525511
        -1140851713 -1275088200 -1074028545 -1409294373</internalNodes>
      <leafValues>
        -5.3231924772262573e-01 2.2834923863410950e-01</leafValues></_>
    <_>
      <internalNodes>
        0 -1 181 -17111246 -136661454 -20660880 -13584400 -1613742096
        2143216625 2079600628 -558285</internalNodes>
      <leafValues>
        -4.9033814668655396e-01 2.7810728549957275e-01</leafValues></_>
    <_>
      <internalNodes>
        0 -1 951 -151060508 79475300 1960618824 -1593902490 819887556
        1423293300 1979003868 1417543038</internalNodes>
      <leafValues>
        -6.6534322500228882e-01 1.8884493410587311e-01</leafValues></_>
    <_>
      <internalNodes>
        0 -1 353 1318279283 2130657055 2121711475 -2025949061 1786013552
        1878469464 2079883068 787840816</internalNodes>
      <leafValues>
        -5.8457666635513306e-01 2.2530901432037354e-01</leafValues></_>
    <_>
      <internalNodes>
        0 -1 434 -158151056 734027712 -1409854223 1820986464 905406164
        -656540813 444023492 201794385</internalNodes>
      <leafValues>
        -6.4148169755935669e-01 1.8034911155700684e-01</leafValues></_>
    <_>
      <internalNodes>
        0 -1 3374 888921687 -1664049153 -1353713743 1002370036 268402687
        515435455 -1308672907 209271793</internalNodes>
      <leafValues>
        -5.2084958553314209e-01 2.2873307764530182e-01</leafValues></_>
    <_>
      <internalNodes>
        0 -1 1904 -1323034150 -714294112 -1617108333 -43922537
        -1985994316 -1189109078 -1209509985 -1185216352</internalNodes>
      <leafValues>
        -3.6608222126960754e-01 3.5636591911315918e-01</leafValues></_>
    <_>
      <internalNodes>
        0 -1 753 2105233975 1055850215 -36071473 -1384142082 1043425652
        -1351410817 -101621797 -1086891665</internalNodes>
      <leafValues>
        -3.3759832382202148e-01 3.6412909626960754e-01</leafValues></_>
    <_>
      <internalNodes>
        0 -1 3476 -1499684136 1423725904 984240378 -1126334090
        -1308161912 109658272 -20174120 -1551236480</internalNodes>
      <leafValues>
        -4.4775956869125366e-01 2.8432482481002808e-01</leafValues></_>
    <_>
      <internalNodes>
        0 -1 180 -454048077 698246115 -1701641506 -1453364431 2000660739
        452135471 -1974123297 1684240243</internalNodes>
      <leafValues>
        -3.7710759043693542e-01 3.3341863751411438e-01</leafValues></_>
    <_>
      <internalNodes>
        0 -1 2018 -1493370182 811611135 272099583 -572515334 -1097871395
        1759043391 -1342177648 150252880</internalNodes>
      <leafValues>
        -6.1451250314712524e-01 1.9611266255378723e-01</leafValues></_>
    <_>
      <internalNodes>
        0 -1 2628 -299393644 -1427948169 1155518844 -524026286
        -780844011 -77719653 1892674124 146863643</internalNodes>
      <leafValues>
        -5.0251662731170654e-01 2.2232574224472046e-01</leafValues></_>
    <_>
      <internalNodes>
        0 -1 1319 -211581806 -1129992864 784000628 -12744582 -70205500
        -1477431308 -566329891 -67409333</internalNodes>
      <leafValues>
        -2.7723193168640137e-01 4.3297848105430603e-01</leafValues></_>
    <_>
      <internalNodes>
        0 -1 367 762005620 -1092699650 -1655698695 -289618028 1998271248
        1868659487 1805933157 -277849164</internalNodes>
      <leafValues>
        -5.5610215663909912e-01 2.2597104310989380e-01</leafValues></_>
    <_>
      <internalNodes>
        0 -1 3957 -1997657386 1679340414 837944028 782719014 -666908516
        -1027434333 -1668105824 -151352079</internalNodes>
      <leafValues>
        -4.0799355506896973e-01 2.9571884870529175e-01</leafValues></_>
    <_>
      <internalNodes>
        0 -1 1564 -701245957 -203381006 -574064823 -134770728 -319339798
        -579560236 -428949809 -4205645</internalNodes>
      <leafValues>
        -1.9957427680492401e-01 6.1897331476211548e-01</leafValues></_>
    <_>
      <internalNodes>
        0 -1 1734 784248439 -20791458 -522315333 -1095745702 1061205853
        1852713670 -202000392 448137400</internalNodes>
      <leafValues>
        -5.1742905378341675e-01 2.5657418370246887e-01</leafValues></_></weakClassifiers></stage1>
</opencv_storage>
