<?xml version="1.0"?>
<opencv_storage>
<stage2>
  <maxWeakCount>21</maxWeakCount>
  <stageThreshold>-1.6237344741821289e+00</stageThreshold>
  <weakClassifiers>
    <_>
      <internalNodes>
        0 -1 2582 905959423 -1214251525 -1084915885 -1073889793
        -1074308129 -1610893061 -276996161 -1073758209</internalNodes>
      <leafValues>
        -8.6021125316619873e-01 -4.7743165493011475e-01</leafValues></_>
    <_>
      <internalNodes>
        0 -1 58 -825823238 -418203773 -678404355 -11142464 -168927596
        -1417705369 -1023627625 -361512173</internalNodes>
      <leafValues>
        -5.9775000810623169e-01 1.2263591634109616e-03</leafValues></_>
    <_>
      <internalNodes>
        0 -1 3963 -1948354562 1073639856 -2108727203 735061724
        -554906377 -1701020951 -1409875970 -1396007692</internalNodes>
      <leafValues>
        -4.5106658339500427e-01 2.1404768526554108e-01</leafValues></_>
    <_>
      <internalNodes>
        0 -1 2604 -80891502 -41437447 -1076173571 -102696989 -774067011
        -629311361 -1401123720 -1599108737</internalNodes>
      <leafValues>
        -3.2413184642791748e-01 3.2900375127792358e-01</leafValues></_>
    <_>
      <internalNodes>
        0 -1 32 -474878814 1050812145 657499919 367800254 -43533180
        -155394012 1575225768 341927812</internalNodes>
      <leafValues>
        -4.8700618743896484e-01 2.3865821957588196e-01</leafValues></_>
    <_>
      <internalNodes>
        0 -1 2191 -1643117380 -1611065182 -1964197317 -631329584
        -1631773048 -1142414392 -1917962807 -1951719400</internalNodes>
      <leafValues>
        -3.9272814989089966e-01 2.5628134608268738e-01</leafValues></_>
    <_>
      <internalNodes>
        0 -1 965 2060909432 1882128002 1306342110 1610557494 865972964
        1948635478 -469993475 914167061</internalNodes>
      <leafValues>
        -5.5421024560928345e-01 2.0703212916851044e-01</leafValues></_>
    <_>
      <internalNodes>
        0 -1 2063 768572387 585774803 -1883269541 820084722 -335855629
        513761275 -19965006 150632867</internalNodes>
      <leafValues>
        -5.2844232320785522e-01 1.8774954974651337e-01</leafValues></_>
    <_>
      <internalNodes>
        0 -1 3510 -1393230132 -742619576 -267326210 -1746264352
        -1740719811 514748809 -965149216 -1210383468</internalNodes>
      <leafValues>
        -3.7197014689445496e-01 2.7990886569023132e-01</leafValues></_>
    <_>
      <internalNodes>
        0 -1 1290 1090319928 347761550 -1720594710 1006368442 601650912
        -18467930 -1142051414 -943495403</internalNodes>
      <leafValues>
        -4.0075230598449707e-01 2.5682845711708069e-01</leafValues></_>
    <_>
      <internalNodes>
        0 -1 3653 1056931289 -1147788198 1432354103 -1219328556
        862973706 -1182803523 2075107199 229586771</internalNodes>
      <leafValues>
        -3.8357487320899963e-01 2.6131919026374817e-01</leafValues></_>
    <_>
      <internalNodes>
        0 -1 3345 8153778 -1998000594 1691919616 79574670 -1380952128
        -856514625 2111753236 -2143289614</internalNodes>
      <leafValues>
        -5.2651262283325195e-01 1.9162942469120026e-01</leafValues></_>
    <_>
      <internalNodes>
        0 -1 257 -271323359 1063062355 1230069559 2070958386 307055581
        2142702081 2129227604 2049998674</internalNodes>
      <leafValues>
        -5.2018177509307861e-01 1.8852554261684418e-01</leafValues></_>
    <_>
      <internalNodes>
        0 -1 2004 -992187280 -187929651 -1845892144 939147836 -641972041
        1941791241 2114556597 -1476454531</internalNodes>
      <leafValues>
        -3.7425255775451660e-01 2.8176829218864441e-01</leafValues></_>
    <_>
      <internalNodes>
        0 -1 2104 -2140888864 -1644790032 1622307437 -573089288
        1867202934 -637770049 390669483 -1132524528</internalNodes>
      <leafValues>
        -4.2855995893478394e-01 2.4338093400001526e-01</leafValues></_>
    <_>
      <internalNodes>
        0 -1 1924 1405026272 -1463101233 1712416257 -51708705 -1052080
        344945648 1417695052 150990175</internalNodes>
      <leafValues>
        -4.7710868716239929e-01 2.0644153654575348e-01</leafValues></_>
    <_>
      <internalNodes>
        0 -1 3023 1052540414 -1490881736 526847074 -1915145498
        -1177452794 -1377440969 1337938544 249397238</internalNodes>
      <leafValues>
        -5.0138515233993530e-01 1.9541022181510925e-01</leafValues></_>
    <_>
      <internalNodes>
        0 -1 2290 897045678 156506843 100894314 781452914 -1102253807
        475380281 -1096952404 -305102900</internalNodes>
      <leafValues>
        -4.9678298830986023e-01 1.9971801340579987e-01</leafValues></_>
    <_>
      <internalNodes>
        0 -1 1025 118354675 736409554 956552411 314329834 851272113
        666395647 244133238 678509714</internalNodes>
      <leafValues>
        -5.3727579116821289e-01 1.9712501764297485e-01</leafValues></_>
    <_>
      <internalNodes>
        0 -1 3204 -436437108 -2133949796 -255851257 -340193686
        -550507595 -371193099 -1304773660 -1455702752</internalNodes>
      <leafValues>
        -3.5367393493652344e-01 3.2295593619346619e-01</leafValues></_>
    <_>
      <internalNodes>
        0 -1 600 -312234832 -722682142 782591629 -1116735769 532525006
        -403279876 -1913786921 -235988393</internalNodes>
      <leafValues>
        -2.5485157966613770e-01 3.9945161342620850e-01</leafValues></_></weakClassifiers></stage2>
</opencv_storage>
