<?xml version="1.0"?>
<opencv_storage>
<stage0>
  <maxWeakCount>13</maxWeakCount>
  <stageThreshold>-2.0973398685455322e+00</stageThreshold>
  <weakClassifiers>
    <_>
      <internalNodes>
        0 -1 2078 1020395519 1068726265 1071472631 -1075987489
        -1543929857 -1077953541 -1375765505 -1073782849</internalNodes>
      <leafValues>
        -8.7208539247512817e-01 4.8661800101399422e-03</leafValues></_>
    <_>
      <internalNodes>
        0 -1 1823 -2294276 -252904451 1978441692 -16973828 1743116797
        -103508498 1760426970 643007</internalNodes>
      <leafValues>
        -7.9810291528701782e-01 6.1924960464239120e-02</leafValues></_>
    <_>
      <internalNodes>
        0 -1 1404 -1435703652 -143089676 -4051838 -1159795476 -789396220
        -1670046604 1718885264 -1225124144</internalNodes>
      <leafValues>
        -6.0619318485260010e-01 2.9060703516006470e-01</leafValues></_>
    <_>
      <internalNodes>
        0 -1 359 171393023 -33573921 2136452159 -1258309379 931082557
        846276701 2126473451 812729392</internalNodes>
      <leafValues>
        -6.4003294706344604e-01 3.0410981178283691e-01</leafValues></_>
    <_>
      <internalNodes>
        0 -1 2934 -1192221952 -1175421164 -2588998 -1853393548
        2048728379 -29815832 2111671544 -1414912896</internalNodes>
      <leafValues>
        -4.9446284770965576e-01 3.9249891042709351e-01</leafValues></_>
    <_>
      <internalNodes>
        0 -1 2815 -1762378444 -1360132356 1073450669 2004754278
        -1935245360 -1467793491 -1096830788 -1191571988</internalNodes>
      <leafValues>
        -4.6432459354400635e-01 3.8369786739349365e-01</leafValues></_>
    <_>
      <internalNodes>
        0 -1 107 2147414902 1539635678 1362145244 981266034 -2758539
        -257656963 -442375 1729459523</internalNodes>
      <leafValues>
        -5.8330547809600830e-01 3.0084478855133057e-01</leafValues></_>
    <_>
      <internalNodes>
        0 -1 299 1708648249 1599521719 -10563593 -1145513986 2136295805
        2069842431 1061428095 1282635168</internalNodes>
      <leafValues>
        -5.1967978477478027e-01 3.1218612194061279e-01</leafValues></_>
    <_>
      <internalNodes>
        0 -1 3836 -1499287824 92158968 -564855557 -22393726 1268743136
        1290564381 -1329005088 -1460638672</internalNodes>
      <leafValues>
        -5.7103961706161499e-01 2.9402774572372437e-01</leafValues></_>
    <_>
      <internalNodes>
        0 -1 351 -17838601 -134238219 -553652261 -75536389 259489048
        -32905 -5869587 -32781</internalNodes>
      <leafValues>
        -2.7768731117248535e-01 5.9362226724624634e-01</leafValues></_>
    <_>
      <internalNodes>
        0 -1 2675 -1162863152 -1179676528 -1074848150 -1275740887
        -1148407983 -1446436982 -1076216484 -1141747456</internalNodes>
      <leafValues>
        -4.5114189386367798e-01 3.7855035066604614e-01</leafValues></_>
    <_>
      <internalNodes>
        0 -1 2822 500940671 1047068668 -656752837 534688383 -1428177025
        530797247 -135905285 234848115</internalNodes>
      <leafValues>
        -4.1895738244056702e-01 3.9252075552940369e-01</leafValues></_>
    <_>
      <internalNodes>
        0 -1 202 105950248 541642493 1019095180 1325323918 1193567844
        -1010538155 799673585 -2063647506</internalNodes>
      <leafValues>
        -6.1093777418136597e-01 2.8737363219261169e-01</leafValues></_></weakClassifiers></stage0>
</opencv_storage>
