<?xml version="1.0"?>
<opencv_storage>
<stage9>
  <maxWeakCount>31</maxWeakCount>
  <stageThreshold>-1.4860110282897949e+00</stageThreshold>
  <weakClassifiers>
    <_>
      <internalNodes>
        0 -1 2073 -570427169 -571212305 1307434259 -13107245 -607125521
        -17342268 -389320725 -524293</internalNodes>
      <leafValues>
        -8.2473570108413696e-01 -3.6666667461395264e-01</leafValues></_>
    <_>
      <internalNodes>
        0 -1 3448 -1893411631 -1183568535 980474060 531123613 951658474
        -1204542638 -198120914 -15742394</internalNodes>
      <leafValues>
        -4.8565655946731567e-01 -3.9387386292219162e-02</leafValues></_>
    <_>
      <internalNodes>
        0 -1 3602 -227482408 -1788551780 -1093661477 -236389508
        1552268514 -575592 -914414165 -552981368</internalNodes>
      <leafValues>
        -2.5263702869415283e-01 2.2654992341995239e-01</leafValues></_>
    <_>
      <internalNodes>
        0 -1 2673 -25971507 -1359063025 -1039083187 -245236386
        2087343991 637493506 550260538 38792946</internalNodes>
      <leafValues>
        -2.8185141086578369e-01 2.1225558221340179e-01</leafValues></_>
    <_>
      <internalNodes>
        0 -1 364 1738371808 1683996503 -1719759248 -1561224732
        -207260300 2036825927 1585864650 1635210257</internalNodes>
      <leafValues>
        -4.6878415346145630e-01 1.2969224154949188e-01</leafValues></_>
    <_>
      <internalNodes>
        0 -1 337 -1093878923 387723170 -1584456802 -581802470 -61572433
        -761001451 2142516085 -17536972</internalNodes>
      <leafValues>
        -3.2297369837760925e-01 2.2719416022300720e-01</leafValues></_>
    <_>
      <internalNodes>
        0 -1 2270 920828101 685560143 -1424612833 -1631693622 1488341742
        196960892 986392772 612378240</internalNodes>
      <leafValues>
        -5.6435215473175049e-01 1.0444851964712143e-01</leafValues></_>
    <_>
      <internalNodes>
        0 -1 2453 -1885601808 -1182994947 1727409720 971243412 402046760
        -59285771 -1084995810 -890666821</internalNodes>
      <leafValues>
        -2.4571098387241364e-01 2.5503006577491760e-01</leafValues></_>
    <_>
      <internalNodes>
        0 -1 463 -836246252 134489348 -100192263 -1125242900 353204996
        -592714020 -1680470862 -295259038</internalNodes>
      <leafValues>
        -3.2685428857803345e-01 1.9769716262817383e-01</leafValues></_>
    <_>
      <internalNodes>
        0 -1 628 1017865890 -1315122518 -61022581 -1675833847 -260307784
        -768353686 1472083418 1927345039</internalNodes>
      <leafValues>
        -2.9455363750457764e-01 2.2080065310001373e-01</leafValues></_>
    <_>
      <internalNodes>
        0 -1 1994 -398992215 1051163951 -1140932867 -1291898899
        792712191 536821671 -511721473 -78905413</internalNodes>
      <leafValues>
        -1.3382263481616974e-01 4.9533230066299438e-01</leafValues></_>
    <_>
      <internalNodes>
        0 -1 1184 -82000207 776853968 813581691 1006574459 111794843
        1332777796 -1952722987 752568189</internalNodes>
      <leafValues>
        -3.0328053236007690e-01 2.2905653715133667e-01</leafValues></_>
    <_>
      <internalNodes>
        0 -1 1630 2124801676 2087105235 -1987006240 450887616 1685421312
        -1075343744 2136312833 574989797</internalNodes>
      <leafValues>
        -4.3349376320838928e-01 1.5383210778236389e-01</leafValues></_>
    <_>
      <internalNodes>
        0 -1 338 -1628448258 713047415 2147286884 -613097737 -25702697
        -537499783 1952444174 -622594574</internalNodes>
      <leafValues>
        -2.4145357310771942e-01 2.7865394949913025e-01</leafValues></_>
    <_>
      <internalNodes>
        0 -1 2535 905192872 -1154086892 -1690829598 48545630 -72905260
        62024295 930367016 41849365</internalNodes>
      <leafValues>
        -4.7552999854087830e-01 1.4140754938125610e-01</leafValues></_>
    <_>
      <internalNodes>
        0 -1 3534 -1947060477 866425561 -711095506 115065801 2008792540
        -710286451 -210390936 1685214984</internalNodes>
      <leafValues>
        -3.5978528857231140e-01 1.7680200934410095e-01</leafValues></_>
    <_>
      <internalNodes>
        0 -1 514 -1373130942 -1375856547 1998525914 -1606779711
        1690502661 -1799650139 -1292553875 825336334</internalNodes>
      <leafValues>
        -4.5329165458679199e-01 1.4690113067626953e-01</leafValues></_>
    <_>
      <internalNodes>
        0 -1 234 -1072763998 -1461241078 -1190816432 -1993588650
        1873061840 2074087560 2045726402 74446306</internalNodes>
      <leafValues>
        -4.3207085132598877e-01 1.5395231544971466e-01</leafValues></_>
    <_>
      <internalNodes>
        0 -1 624 1861004018 941988201 1707567819 -612688168 -341439132
        -810882598 1634625152 -908680574</internalNodes>
      <leafValues>
        -3.0160447955131531e-01 2.3976022005081177e-01</leafValues></_>
    <_>
      <internalNodes>
        0 -1 226 -545820012 -184957228 659467691 1940834812 -1476503298
        366916733 310109116 -2101037391</internalNodes>
      <leafValues>
        -2.7369266748428345e-01 2.6621270179748535e-01</leafValues></_>
    <_>
      <internalNodes>
        0 -1 2835 -1131926456 1534854859 -1857936446 885713948
        -1426042191 157395179 1064450610 907312420</internalNodes>
      <leafValues>
        -5.6831651926040649e-01 1.2403506785631180e-01</leafValues></_>
    <_>
      <internalNodes>
        0 -1 1969 -1444293839 -1784926488 802783171 1073647345
        2113298140 -1401618500 -1074317635 -1731746085</internalNodes>
      <leafValues>
        -2.4002820253372192e-01 3.0448409914970398e-01</leafValues></_>
    <_>
      <internalNodes>
        0 -1 2778 -61421088 619983344 -2013122994 -144795460 1996858211
        1912526329 -1141105128 853036616</internalNodes>
      <leafValues>
        -4.3776294589042664e-01 1.5985848009586334e-01</leafValues></_>
    <_>
      <internalNodes>
        0 -1 3453 1118858960 771251349 -600506884 -1636260315 1231185568
        -891686450 -24946216 448582741</internalNodes>
      <leafValues>
        -3.9069974422454834e-01 1.7485201358795166e-01</leafValues></_>
    <_>
      <internalNodes>
        0 -1 3308 -457563128 -1599713469 -1808316132 -622438919
        -456294804 162667371 213453816 1095255893</internalNodes>
      <leafValues>
        -4.5685091614723206e-01 1.4902867376804352e-01</leafValues></_>
    <_>
      <internalNodes>
        0 -1 2391 1340869184 75588544 139352866 316185417 1432173650
        -549253955 658637584 847534933</internalNodes>
      <leafValues>
        -6.0721600055694580e-01 1.1111006140708923e-01</leafValues></_>
    <_>
      <internalNodes>
        0 -1 3606 2125238386 -1629161031 -1115369384 -1779378962
        -1183093865 -254686438 -1076565693 1814566404</internalNodes>
      <leafValues>
        -3.7132999300956726e-01 1.8857568502426147e-01</leafValues></_>
    <_>
      <internalNodes>
        0 -1 488 139601504 1028992729 -605670409 -1108502256 -279049072
        -426798853 785267998 583446804</internalNodes>
      <leafValues>
        -5.2518045902252197e-01 1.2941157817840576e-01</leafValues></_>
    <_>
      <internalNodes>
        0 -1 1995 23144768 1285970950 -2024649592 586425706 1936119136
        2145794981 -1930731687 1625444158</internalNodes>
      <leafValues>
        -4.9065998196601868e-01 1.3586291670799255e-01</leafValues></_>
    <_>
      <internalNodes>
        0 -1 983 -829022656 -624614607 -570391136 -1493508236 2104255683
        2001160270 1620527510 1218122978</internalNodes>
      <leafValues>
        -4.3418815732002258e-01 1.6101831197738647e-01</leafValues></_>
    <_>
      <internalNodes>
        0 -1 3661 1817791728 2107323765 -1102865606 -1200324941
        1339812734 -1272300710 1871011142 -911540027</internalNodes>
      <leafValues>
        -2.9716244339942932e-01 2.4425956606864929e-01</leafValues></_></weakClassifiers></stage9>
</opencv_storage>
